0.142857142857,0.142857142857,0.142857142857,0.142857142857,0.142857142857,0.142857142857,0.142857142857
0.155445509642,0.152803255833,0.162175211855,0.121126398805,0.13205739477,0.150730441363,0.125661787731
0.351343930024,0.0493260956838,-0.00732968352512,0.223345176212,0.100323386012,0.0796535388603,0.203337556733
0.125846254341,-0.0523665743231,0.303386347477,0.137351444274,0.192408383712,0.16916207199,0.124212072529
0.0778751902519,0.206387389042,0.322705652745,0.332565817366,0.0770682922726,0.107814572513,-0.12441691419
0.116587745643,0.177854171203,0.318773671182,0.344609614408,0.0224568779889,0.146471865779,-0.126753946204
0.113556023541,0.180535790316,0.308371711135,0.343585434556,0.0203170974585,0.157798872452,-0.124164929458
0.0649134176041,0.156506872667,0.300995968482,0.358804286874,0.00138389149962,0.195062743652,-0.0776671807781
0.0643658803943,0.174517604213,0.290617427102,0.371350550544,-0.00383432332949,0.193121447878,-0.0901385868013
0.067524220265,0.174419770426,0.286430502671,0.374097213365,-0.00475110739119,0.194488153334,-0.0922087526697
0.0760075230966,0.194756485973,0.231146559494,0.367240125211,0.0545924598416,0.164782286284,-0.0885254398997
-0.0256380593747,-0.308395404109,-0.206275392166,0.774028677531,0.165749575547,0.283037109389,0.317493493183
0.574538690184,-0.44601418353,0.0341283347678,0.575735651751,0.177265221529,0.116960400662,-0.0326141153653
0.616440263852,-0.66842458147,0.225410875611,0.567689976896,0.194305167286,0.211341043371,-0.146762745545
0.584622246545,-0.469794566279,0.177042813384,0.598381020058,0.180528746924,0.136661603272,-0.207441863905
0.663092651556,0.0227862175121,-0.00378714445157,0.134297379337,-0.148595203324,0.315694624266,0.0165114751047
0.763414836562,0.0612237610801,0.00974897739745,0.0417896047808,-0.201325974109,0.299028124546,0.0261206697429
0.83945684503,0.0323094874978,0.156122681455,-0.0147728848199,-0.0992542654883,0.326592512601,-0.240454376275
0.662322580093,0.281121510999,0.168953094735,0.2375247768,-0.198715079369,-0.000340994103533,-0.150865889155
0.601208842594,0.165549626456,0.133223545336,0.221504063667,-0.131160814647,0.32735354406,-0.317678807466
0.532669519509,0.215023697827,0.248267141141,0.0803867696178,-0.0797915975356,0.163361523557,-0.159917054117
0.742416345337,0.207971546112,0.125025698317,0.093613133315,-0.0906870209093,0.13555914491,-0.213898847082
0.911751536986,0.0733513341154,-0.145894234898,0.0762814859185,-0.0634605604818,0.256101633425,-0.108131195064
0.586573864773,0.654291154203,0.406591077913,-0.149441660264,-0.0157720426774,-0.435489924596,-0.0467524693504
0.61461147163,0.417967609304,0.0669031384473,-0.371813818641,0.890540570313,-0.728897422814,0.110688451761
0.573491120034,0.623384541937,-0.142972743949,-0.0761815019493,0.647902969026,-0.47853231999,-0.147092065108
0.518064361647,0.428803332999,-0.0674035701001,-0.114347130033,0.586163923021,-0.340634431407,-0.0106464861274
0.488051507492,0.454345210436,0.0681285369831,-0.0614222922832,0.618572438934,-0.430215247866,-0.137460153696
0.525664502463,0.619022988993,0.0260168422646,-0.2291665563,0.548509877273,-0.44710672868,-0.0429409260125
0.431200709049,0.569334532426,0.0728301803199,-0.301995865416,0.595404369899,-0.353251530003,-0.0135223962755
0.406660404458,0.496454265416,0.054768519111,-0.141417599126,0.638955946466,-0.407461020641,-0.0479605156828
0.408213974448,0.495180288195,0.0572516569644,-0.141149651293,0.63379046061,-0.405085827801,-0.0482009011229
0.338911434971,0.539301769233,0.141716933694,-0.202511287277,0.600441911588,-0.420458944588,0.00259818237931
0.289802875147,0.581971533184,0.106355431369,-0.214651632893,0.606633292324,-0.418451790331,0.0483402912001
0.290762203672,0.625830556639,0.144968131325,-0.213179772615,0.594062670031,-0.448612667972,0.00616887891992
0.138067643066,0.599348026178,0.147277123144,-0.0754470264064,0.525941564119,-0.448988382936,0.113801052836
0.0938532782708,0.610589163863,0.150924878876,-0.0375942169761,0.516323593374,-0.437967015846,0.103870318439
0.0588642742642,0.648759779038,0.139519884609,-0.0318903478396,0.537323463882,-0.418785173189,0.0662081192361
0.0621999873091,0.645914120469,0.134991694401,-0.0291534910069,0.536476568699,-0.414912233133,0.0644833532615
0.0297292915543,0.666047657675,0.110917579116,-0.053396460202,0.633514156733,-0.373727313493,-0.013084911383
0.0837583087288,0.702960061586,0.0969381489655,-0.0427722743722,0.520375634471,-0.40221412383,0.0409542444509
0.124436750874,0.619714372069,0.195096777594,-0.0268855239067,0.479788767804,-0.416238106135,0.0240869617013
0.065865856385,0.643623684473,0.170652479178,-0.0870627532667,0.484969997579,-0.386798798462,0.108749534114
0.0729888214524,0.651604769397,0.144071956344,-0.094342098582,0.486746390431,-0.373534867304,0.112465028262
0.0793832178809,0.662367079575,0.0943887984404,-0.0725995103261,0.509876952765,-0.391466447236,0.118049908901
-0.501124561142,0.979817089153,-0.0702001798936,0.328318069281,0.474098429199,0.0121595687669,-0.223068415364
-0.361357580738,1.1182987275,-0.109370343722,0.353490158689,0.566831432898,-0.295886811205,-0.272005583425
-0.357289574909,1.08294231726,-0.163234404135,0.417087647717,0.496250602916,-0.276848535532,-0.198908053322
-0.375475933125,0.772460673793,0.01390774782,0.337022207413,0.541672669004,0.0439026830941,-0.333490047999
-0.23099779553,0.901229219871,-0.056034472683,0.250424799925,0.54918683728,0.0327291086786,-0.446537697541
-0.281311692959,0.838789090253,0.021354212079,0.297118490088,0.59787781909,-0.0148142194093,-0.459013699142
-0.285420702799,0.794074854907,0.0511198829013,0.246494813656,0.650121940529,0.00717676347946,-0.463567552673
-0.199769016491,0.807878284941,0.0813260492895,0.0405838231698,0.676407613505,0.0359411916382,-0.442367946052
-0.179049014962,0.770573512696,0.0180746231468,0.0562414259239,0.690069401029,0.0965671450414,-0.452477092874
-0.177958380333,0.766711942684,0.0173805783237,0.0549885303016,0.693968710685,0.0965324664937,-0.451623848155
-0.207227911528,0.745057449937,-0.0185076271934,0.0642072502297,0.709007741942,0.125010988485,-0.417547891872
-0.202834553016,0.736320565644,-0.0281191075153,0.0745744534715,0.713524103967,0.118930027155,-0.412395489706
-0.205466151682,0.700336266694,-0.0206790719601,0.115226897937,0.695316347264,0.10620408417,-0.390938372423
-0.187812954423,0.688477312212,-0.133174044099,0.0756785148123,0.620162212997,0.296758231396,-0.360089272895
-0.183890999456,0.684517394313,-0.122857904064,0.0688944985729,0.591065996349,0.317834348278,-0.355563333992
-0.168778850788,0.626264295899,-0.0841315208204,0.102138753676,0.548261681466,0.292090737655,-0.315845097087
-0.152804246265,0.608603991775,-0.0782458466316,0.134964095057,0.541979448266,0.252451556205,-0.306948998406
-0.122044936434,0.59361842124,-0.12156393327,0.144912843124,0.577050598738,0.229020258826,-0.300993252223
-0.132850307252,0.829539599983,-0.114849113155,0.204679326744,0.472515083615,0.128636344766,-0.387670934702
-0.121910176616,0.825298329604,-0.117238232878,0.217786917478,0.464884646701,0.136225802735,-0.405047287024
-0.202255570917,0.890240281434,-0.105074903771,0.237485512479,0.514928741995,0.0935224234057,-0.428846484626
-0.331944559963,0.962860990182,-0.124448530553,0.270707261066,0.435454749611,0.0722689620055,-0.284898872349
-0.366280307048,1.0359729971,-0.245393272419,0.186396287358,0.415969189179,0.232534825796,-0.259199719971
-0.360469981438,1.00572551993,-0.241097163365,0.187475399675,0.399101686245,0.241656412404,-0.232391873448
-0.48297623721,1.00999972314,-0.0480595609152,0.179381389141,0.393030143005,0.310954724269,-0.362330181434
-0.472369376286,0.998921984488,-0.0450374122098,0.163544593202,0.402309521882,0.341507821514,-0.388877132591
-0.432945565717,0.938498645959,-0.00669027982005,0.174545731333,0.397475515912,0.289102401817,-0.359986449484
-0.446364997671,1.02173216089,-0.0484150733887,0.221362559492,0.249620534653,0.298300298649,-0.29623548262
-0.461649134664,0.98491587795,-0.0627396830671,0.228818038746,0.239666581374,0.346757372923,-0.275769053262
-0.489522592847,0.972398954183,-0.0455336674447,0.185036046681,0.277336201759,0.314269997413,-0.213984939744
-0.523578336587,0.974604064295,-0.0439939932997,0.188833978402,0.29270256742,0.288742682419,-0.17731096265
-0.565575305275,0.695993204033,-0.0553086382571,0.171745440932,0.412268910311,0.417096146969,-0.0762197587136
-0.596902859147,0.70423658042,-0.0996012536979,0.274107952941,0.423678491694,0.309736508275,-0.0152554204865
-0.58186011527,0.693991159213,-0.120248259579,0.298130025183,0.461636386828,0.315941839667,-0.0675910360416
-0.480316923652,0.722837675175,-0.0251095524825,0.103060588332,0.126293151767,0.405748324024,0.147486736836
-0.457997484641,0.699372380302,-0.00459537334458,0.0613969413776,0.186810448279,0.410150341557,0.10486274647
-0.442278639841,0.646422096047,-0.0691763403748,0.0813975433626,0.267080486582,0.413731043862,0.102823810362
-0.388968425664,0.811398287589,-0.121933734785,-0.0301158523414,0.271108299518,0.425120228804,0.0333911968805
-0.3580014493,0.712358831512,-0.145293718605,0.144939222528,0.276809104642,0.371088693188,-0.00190068396504
-0.235242564392,0.695882836816,0.150235191859,-0.165494806356,0.331383776259,0.0627526924178,0.160482873396
-0.22953792806,0.646838555942,0.247783798532,-0.123808402594,0.279967091059,0.00509099337329,0.173665891748
-0.198312286804,0.813478291156,0.316519635496,0.0786042515998,0.104385460186,-0.0488520964405,-0.0658232551933
-0.174859259298,0.81272458074,0.300718332679,0.0613972154719,0.0952497303893,-0.0392214779503,-0.0560091220326
0.266857145205,0.820174846444,-0.188299273681,0.336805883009,-0.209961557914,-0.125498443874,0.0999214008098
0.422973424238,0.863800674106,-0.322834671861,0.264653436187,-0.295994194153,-0.244508226159,0.311909557643
0.526172436344,0.536758839192,0.0528620272894,-0.213793313352,-0.109431923137,-0.0888985632592,0.296330496923
0.538176821743,0.565398691808,0.193687008022,-0.190787130216,-0.121343867332,-0.227871478218,0.242739954193
0.453571132787,0.587097028138,0.185858026395,-0.224294124639,0.0290803844554,-0.22942532543,0.198112878294
0.408805358875,0.579359536112,0.25339181696,-0.045461557131,0.0867840237858,-0.299255767546,0.0163765889434
0.406160520991,0.579338662553,0.246283924239,-0.0389593836583,0.0951868222008,-0.303731646003,0.015721099677
0.281319259944,0.571712769122,0.226412560203,0.0521742090729,0.103304220852,-0.313292412929,0.0783693937352
0.366711898742,0.44863235505,0.201321446661,0.0900696559221,0.175234249117,-0.310962565059,0.0289929595661
0.32535100574,0.95483233886,0.183900266741,-0.0809320197202,0.024740745112,-0.188201990342,-0.219690346391
0.457631317549,0.591545917468,0.0921213912426,-0.0535435295978,-0.0700209921684,0.217983326092,-0.235717430585
0.288235257327,0.468107561825,0.188162756806,-0.00733318841691,-0.097436977147,0.252835389613,-0.0925708000075
0.252277583697,0.465239512271,0.192897976644,-0.0357823324604,-0.0413724880502,0.240900207194,-0.0741604592948
0.264912714069,0.472305123102,0.246889206572,-0.0678589388029,0.0106786331763,0.249927754043,-0.176854492159
0.228155308985,0.505394737687,0.210744394086,-0.12015091131,0.096291575274,0.240299828456,-0.160734933178
0.214181133982,0.357317413876,0.321577519996,0.132779893358,0.0227728824234,0.16201534575,-0.210644189385
0.314653853569,0.276481862252,0.384451523072,-0.00348424174448,-0.0216739714049,0.108909500311,-0.0593385260548
0.037538410677,0.479782201358,0.273245723434,0.120575120591,0.0912075140401,0.19325014293,-0.19559911303
0.162249841025,0.563719750173,0.311978947764,0.0573372889209,0.102967500086,-0.0464947010728,-0.151758626897
0.112688871927,0.551870124685,0.299264220331,0.0571841845047,0.11339003633,-0.00253600195827,-0.131861435819
0.133722411645,0.548456106722,0.310121349681,0.0321428886384,0.0884096510895,0.0215529194375,-0.134405327213
0.0709163707906,0.515283705064,0.248127328132,-0.0623882840495,0.0947586338601,0.0859415664535,0.0473606797498
0.0554181709023,0.479164516801,0.213160512359,-0.0302665627319,0.147880194755,0.055141451061,0.0795017168533
0.105635677137,0.512396528275,0.179014225926,-0.124406607484,0.281433744731,-0.0441212304654,0.0900476618802
0.0609023091179,0.578904485531,0.205157445052,-0.140662616634,0.202244111714,-0.00330215589908,0.0967564211193
0.00156988819512,0.541664264127,0.267766816077,-0.033738876068,0.217271809116,-0.0509898007687,0.0564558993213
0.0453021496472,0.651488476946,0.235174458789,-0.00926020640973,0.207503227005,-0.0722923803522,-0.0579157256255
0.050110351279,0.679885554485,0.189702405163,-0.0156864252427,0.224283146781,-0.0780886105293,-0.0502064219361
0.191755019183,0.639678141347,-0.0127939684161,0.0347014940384,0.232561784547,0.0607215993105,-0.14662407001
0.234318123576,0.62230546229,-0.10624798888,0.0509282788779,0.255743516778,0.0630457800128,-0.120093172656
-0.0705752729723,0.613425616641,-0.216254096084,0.0981856336008,0.264662754852,0.147324817582,0.16323054638
-0.0708660534343,0.613165331144,-0.215810575169,0.0962976936906,0.264433381824,0.148770973647,0.164009248298
-0.11369305906,0.45084629524,-0.159404559773,0.205676182924,0.423674005538,0.0898950710008,0.10300606413
-0.142683933807,0.462280010756,-0.126701862757,0.201135353697,0.454211252836,0.0995741616504,0.052185017625
-0.19224338014,0.524010856166,-0.101082538399,0.287019588066,0.361369211784,0.126392326187,-0.00546606366435
-0.185269460132,0.52195923823,-0.157057566489,0.397175511524,0.288158629779,0.118544248275,0.0164893988132
-0.251846239228,0.439397159115,-0.083607589974,0.335019599162,0.298591967034,0.14873586627,0.113709237622
-0.226764901502,0.477958676912,-0.206681943716,0.33245826779,0.406288604612,0.139246419636,0.0774948762681
-0.155092869696,0.416168205519,-0.115991348968,0.3370343736,0.369905846531,0.189586025919,-0.0416102329057
-0.0628735409056,0.424429460414,-0.13318956,0.298189961279,0.321309557053,0.172483750005,-0.0203496278456
-0.110079150689,0.4500701502,-0.0771663922127,0.294388145476,0.298079740528,0.144511702066,0.000195804631205
-0.0802979012305,0.382690575481,-0.146541950058,0.346945583025,0.240493568806,0.219400150686,0.0373099732906
-0.0671791447365,0.310945095676,-0.125828852943,0.336905050353,0.247626291522,0.206706688837,0.0908248712919
-0.182990930218,0.304301514252,-0.0975644696487,0.323748227277,0.278133247413,0.296784803388,0.0775876075369
-0.195545695603,0.405739419442,-0.0561977100649,0.394224984909,0.394624638144,-0.00353753598079,0.0606918991546
-0.217795569558,0.380810837516,-0.109783094714,0.432057063301,0.449573895999,0.0313576759955,0.0337791914603
-0.207000314304,0.361188415765,-0.0814586849488,0.464739770233,0.44851870532,0.0850624865888,-0.0710503786535
0.0519496348814,0.357477760802,-0.0553680676429,0.343089903627,0.354397863821,0.0376364177461,-0.0891835132342
0.0607298323701,0.362857250588,0.00527302005912,0.309473239191,0.343869545899,0.0346592659098,-0.116862154017
0.07168208097,0.350430019314,-0.017796480335,0.315090797476,0.339967875734,0.0361196741442,-0.0954939673037
0.0273444042745,0.406069657005,-0.027510875203,0.315525867924,0.311691933372,0.0882560921083,-0.121377079481
0.0275920953596,0.403432968758,-0.0283192260998,0.318675606417,0.321237591837,0.0828089624326,-0.125427998704
0.0312113242902,0.399033119562,-0.0342034640899,0.318633285387,0.324557992956,0.0859839347258,-0.125216192832
0.0474755743783,0.391245262009,-0.0307034126861,0.303462210635,0.358023571188,0.0853996532234,-0.154902858747
-0.0872408240534,0.352471057391,0.0147480231637,0.241215152049,0.483337168508,0.0989261016895,-0.103456678748
-0.158118377201,0.29194352215,-0.0058525450028,0.126618974551,0.52400552768,0.137019019294,0.0843838785277
-0.0763715931043,0.355310013074,0.110214294471,-0.0477717521841,0.504448271678,-0.0207083502542,0.174879116319
-0.0532389859691,0.286285813965,0.177078620337,-0.0393796362644,0.471531518872,-0.0163896651854,0.174112334245
-0.0641912816424,0.269681574757,0.168125586485,0.0695419678945,0.411959389555,0.0209245120694,0.123958250881
-0.0628331032885,0.236095408452,0.173450014184,0.0618198631282,0.44207764846,0.033879375349,0.115510793715
0.00028861009038,0.276996736766,0.164912613365,-0.0942353702546,0.511046402716,0.0816690522541,0.0593219550639
0.0445717412379,0.316124163482,0.158662854861,-0.0979961253417,0.508433212913,0.0599608399425,0.010243312905
0.15823032714,0.387209454034,-0.161158948705,-0.221673914991,0.404825133258,0.304021172521,0.128546776743
0.139635056971,0.338918239749,-0.181113189171,-0.211253952513,0.422444579086,0.382983687597,0.108385578282
0.167712382329,0.276543214534,-0.168393281751,-0.209483275281,0.426526381719,0.420072190231,0.0870223882183
0.124080444511,0.300661265662,-0.175143183929,-0.212283219533,0.451678921705,0.455606487321,0.0553992842639
0.0383881760811,0.408008740296,-0.17238680231,-0.0939862367183,0.541501312727,0.387882929155,-0.109408119231
0.0339611565412,0.394895945316,-0.153688425155,-0.131140631831,0.545089937312,0.371160957446,-0.0602789396306
0.151515964413,0.721161078099,-0.168522598162,-0.0823845705777,-0.0457850338753,0.380994470469,0.043020689634
0.150766528175,0.718904423809,-0.171558689671,-0.0787703531257,-0.0439985671397,0.38481832146,0.0398383364933
0.240165177079,0.725363180233,-0.190701131453,-0.045110529526,0.00318442726615,0.270686551197,-0.00358767479621
0.41630812093,0.595448187998,-0.229374616296,0.22249537593,0.426333610379,-0.308550499762,-0.122660179179
0.489816598562,0.813320045492,-0.465289010568,0.308182699008,0.267619749601,-0.366378513751,-0.0472715683438
0.693938737838,0.684335320214,-0.603419501106,0.295400400903,0.282080368476,-0.329038133826,-0.0232971924993
0.608555250546,0.628839037201,-0.445884457009,-0.0151896780535,0.448866321113,-0.0448471349725,-0.180339338825
0.253624865465,0.674513386318,-0.390152764894,0.216626849298,0.404142988648,-0.0137862638027,-0.144969061032
0.349440477032,0.466166464724,-0.0490509902493,0.246910667643,0.361552857703,-0.0102462954704,-0.364773181382
0.343281252724,0.470543659737,-0.0040246007377,0.34103987428,0.317961081196,0.0397443782393,-0.508545645438
0.237498289099,0.385384029411,0.0111536261997,0.417398717777,0.15542184009,0.291731494674,-0.498587997251
0.10585634046,0.00666016423025,0.0085021508671,0.494389688342,0.348850554716,0.286655358889,-0.250914257504
0.109022626431,-0.015825930703,0.0125398895619,0.513641731426,0.342093735152,0.274011960793,-0.235484012662
0.112670802512,-0.0440560425672,0.109418861817,0.576255734729,0.185932879323,0.271652794008,-0.211875029822
0.15371251357,0.0184328783254,0.132265217479,0.602555146872,0.123526229791,0.228894167951,-0.259386153987
0.156821913287,0.00593388258352,0.135421510955,0.600432564754,0.107642015788,0.228883937574,-0.235135824942
0.210964334621,-0.0304792645894,0.124142248719,0.62354581606,0.0815053107967,0.276468826072,-0.286147271679
0.212410848632,-0.0294607169976,0.121193965713,0.627153704403,0.0812142427878,0.27367676978,-0.286188814318
-0.0197889027228,0.192131801184,0.0838912489097,0.664515730165,0.0512881887846,0.336851761619,-0.308889827939
-0.0854501623433,0.201883829184,0.170867728128,0.739069740132,0.0972577074856,-0.014466818003,-0.109162024584
-0.0624563061093,0.191668154573,0.221435957472,0.711561263175,0.0623926074109,-0.0336988962962,-0.0909027802264
-0.0344330466326,0.200173664978,0.134011423829,0.742780070815,0.0726552359039,-0.0376077618593,-0.0775795870334
0.0298980690573,0.292887481445,0.186133648154,0.76785588728,-0.0353459590444,-0.0596489820989,-0.181780144793
0.0322154932,0.284803694759,0.186139738384,0.773229649949,-0.0390660236632,-0.0562813447458,-0.181041207883
-0.0258892629973,0.257400346083,0.0866205842776,0.863460856659,-0.133356801584,0.0654917089406,-0.113727431378
0.132418592423,0.229200663992,0.180723191207,0.681479604572,-0.32309770232,0.0615531323145,0.0377225178116
0.108023901916,0.223891431618,0.190177455509,0.694037993976,-0.29127753705,0.047540810804,0.0276059432266
0.0956204956218,0.220399170428,0.188855368596,0.696502591016,-0.268776964365,0.0471996745736,0.0201996641292
0.142615610479,0.157485986909,0.194561342751,0.737698308084,-0.295975453476,0.0144204980799,0.0491937071726
0.145952592169,0.211717212313,0.136790626417,0.776312716391,-0.383098688415,0.00567250220783,0.106653038917
0.150070377217,0.229182671706,0.153398718754,0.803574965865,-0.397967753105,-0.0312835086527,0.0930245282155
0.124699342194,0.22891376223,0.147521707853,0.795093547604,-0.376205261533,-0.0594417525002,0.139418654152
0.125147328566,0.228211196457,0.146739752657,0.795989533308,-0.375963159313,-0.0599137585298,0.139789106854
0.0627321532374,0.129163690983,0.115298394006,0.915440819128,-0.317609683425,0.00411146749519,0.0908631585749
0.219871939511,-0.0536990321948,0.121664983538,0.873383752953,-0.216040566693,-0.137429651015,0.1922485739
0.150336245479,-0.0366249102312,0.178298653929,0.892405608174,-0.229314971974,-0.079347674267,0.12424704889
0.151746285015,-0.0378554943906,0.18482344947,0.892025158939,-0.228307342526,-0.0824879480118,0.120055891505
0.114911716766,0.11994961295,0.148723846265,0.746658996477,-0.163932250665,-0.181885232712,0.215573310919
0.139106643836,0.216108919833,0.0687005010537,0.761317283873,-0.153107800541,-0.188587484087,0.156461936033
0.132663993549,0.225332455249,0.0576990639235,0.761242057858,-0.146868451486,-0.177925572164,0.14785645307
0.130076922116,0.259122938141,0.129451771899,0.771311156317,-0.142003411761,-0.254059128076,0.106099751364
0.186574072322,0.32256962633,0.0749642808982,0.799421260424,-0.0909865166977,-0.298309616588,0.00576689331131
0.188248176025,0.322611230095,0.0779370314615,0.795070360619,-0.098827999444,-0.293414871777,0.00837607302077
0.142853258875,0.394695114925,0.0399063537541,0.782390212576,-0.184090661437,-0.214728794138,0.0389745154454
0.343510319412,0.236168216875,0.114769042079,1.30456538972,-0.588041670406,-0.603921362394,0.192950064717
0.33712811568,0.239554122671,0.120386098249,1.30231099924,-0.587695188926,-0.600683450031,0.188999303112
0.35853852738,0.26323194501,0.127965363041,1.26799870402,-0.584799200445,-0.628374983174,0.195439644169
0.336512788813,0.0765920854444,-0.0826532940468,1.39667131292,-0.505850279611,-0.595821057133,0.374548443615
0.202885651349,0.0553363271019,0.211658745687,1.23635344681,-0.603938097744,-0.56533415721,0.463038084003
0.23465770989,0.0456176283223,0.194508017603,1.21362111953,-0.563635759198,-0.591640920444,0.466872204293
0.235283691532,0.344634655996,-0.0386973254839,1.0674704636,-0.642048072348,-0.498408726098,0.531765312798
0.287914729203,0.207997859107,-0.00917960667742,1.03902059209,-0.542125064425,-0.50053116994,0.516902660641
0.266336619854,0.230263138976,-0.0121109103882,1.05919005145,-0.545260849066,-0.508418158456,0.510000107633
0.214279335461,0.16941663137,-0.107127188938,1.13926242029,-0.459834987215,-0.51136391724,0.555367706269
0.255784570073,0.216004126442,-0.0489053204626,0.995840787094,-0.526140315505,-0.488974528862,0.59639068122
0.245959374739,0.193767588954,-0.0516412865853,1.00122239172,-0.54156592942,-0.487976102663,0.640233963255
0.230765035269,0.189353226663,-0.0647285812655,1.0186005712,-0.494728182677,-0.495677519513,0.616415450328
0.211102828399,0.205810015206,-0.0650466595457,1.00962799549,-0.490295118151,-0.511878568619,0.640679507221
0.211205547718,0.206092757484,-0.0656399913849,1.00783897623,-0.488744660953,-0.51466355447,0.643910925379
0.207512630454,0.223727806626,-0.0472013946899,1.00879908091,-0.489124691406,-0.541797904951,0.638084473055
0.14201184364,0.403928766457,0.0186846594399,1.07297395195,-0.592497069024,-0.552357979343,0.507255826884
0.118352584663,0.337011853775,0.0336761779164,1.03523938953,-0.583070682313,-0.643838492466,0.702629168894
0.0899336528972,0.398752114573,-0.145243688254,1.15406567846,-0.409117096808,-0.598515077575,0.510124416704
0.0461831097974,0.403665705962,-0.0310641806258,1.16111223897,-0.370861516555,-0.696399762937,0.487364405388
0.141032644969,0.424686464876,-0.0470128499453,1.12081660174,-0.325567146742,-0.733924254585,0.419968539684
0.04249340164,0.731714416072,-0.124033562746,0.882349609391,-0.483063014656,-0.521627008472,0.47216615877
0.0430040597004,0.732294841133,-0.122395532411,0.877763302554,-0.491205205739,-0.508906094161,0.469444628924
-0.0258815538096,0.702301081749,-0.0849867878478,0.716240899422,-0.358700328239,-0.493039330778,0.544066019504
-0.00432593574988,0.648413460801,-0.156634830576,0.55484014498,-0.246096062722,-0.55330012933,0.757103352597
-0.00980027397266,0.639362943877,-0.110988782768,0.539320612259,-0.253445666134,-0.540578466539,0.736129633277
-0.0125797935782,0.660078125242,-0.117462445186,0.536049797253,-0.209943341287,-0.569684116195,0.713541773753
-0.00818730348618,0.661806439284,-0.120755780349,0.536149686113,-0.204069463045,-0.575481248865,0.710537670348
-0.00874229722495,0.662920258311,-0.117994380001,0.536207090505,-0.202945358736,-0.579100404085,0.709655091231
-0.0107142349267,0.661522887311,-0.116156878383,0.535577659061,-0.203082035363,-0.577294686818,0.710147289119
-0.00739864290537,0.626690958383,-0.0780728330719,0.51733653669,-0.203648040694,-0.567350676583,0.712442698182
0.068184931084,0.372546142706,-0.0878990478602,0.843609468645,-0.127846325748,-0.497106309566,0.428511140739
0.0553326029,0.340699156556,-0.10718643493,0.854374593745,-0.104518729906,-0.474515884355,0.43581469599
0.00776713641631,0.380121736246,-0.146657311684,0.859539083794,-0.0991933334589,-0.467771841159,0.466194529846
-0.0831050430723,0.449419482695,0.080884210626,0.740353943698,0.0183150396261,-0.590994435094,0.385126801522
-0.0524308816945,0.450019344704,0.0591510389395,0.734833688158,0.00745231548298,-0.572055338721,0.37302983313
0.310385267092,0.423042982907,-0.104670156261,0.756103646678,0.033943153208,-0.8940037951,0.475198901475
0.359627765111,0.126348678203,0.050338263625,0.563325365526,0.0794671447439,-0.612307003971,0.433199786763
0.491823665076,0.114292200704,0.0792277722039,0.538200041245,0.0370549799723,-0.631859116552,0.371260457352
0.581070839768,0.0832644711132,0.0915408602128,0.472631232625,0.0499527136946,-0.627626648497,0.349166531084
0.602380978788,0.0285828980174,-0.0465438896536,0.583795580556,0.320421060326,-0.69306937295,0.204432744917
0.713576009614,0.0343167798256,-0.21598252209,0.472144756709,0.295670974128,-0.589952544687,0.2902265465
0.576061254003,0.0364091004569,-0.231000555618,0.306708799875,0.55049343614,-0.544885110977,0.306213076118
0.590504367201,-0.016937288666,-0.234374939676,0.313581229725,0.549487529293,-0.521699685562,0.319438787685
0.552735685615,0.522395880046,-0.376559831207,0.0715181250434,0.605753540859,-0.405507122439,0.0296637220832
0.544465952713,0.523211011379,-0.373018407591,0.0734765732572,0.606180883099,-0.409802829635,0.0354868167783
0.555669550361,0.521416006175,-0.381597565472,0.0694607276422,0.601549728784,-0.397019753459,0.0305213059683
0.561177176271,0.508995246279,-0.387684419739,0.0700713615627,0.60669203331,-0.398572451604,0.0393210539203
0.483952849256,0.481145460338,-0.256088230511,0.127334242971,0.625435741844,-0.375009304883,-0.0867707590155
0.665281662453,0.516739326596,-0.175820971169,-0.0842606847026,0.813743348872,-0.447847527814,-0.287835154235
0.497361070445,0.596279106132,-0.317585585836,-0.0381829968713,0.711380268023,-0.437575147626,-0.0116767142667
0.609752653875,0.635066762424,-0.20262100967,-0.198150756906,0.518859375695,-0.493707280855,0.130800255436
0.611152242079,0.969313992448,-0.182727321114,-0.123528846465,0.182339771788,-0.538446044017,0.0818962052811
0.590777068374,0.791817193186,-0.0481425087254,0.0595876096862,0.231774318282,-0.687586701891,0.0617730210873
0.426399240705,0.854642847199,0.10050236037,-0.125785984401,0.259360516078,-0.556527331614,0.0414083516632
0.491067743204,0.889715758812,0.0233025999739,-0.152908069458,0.233851047184,-0.561776389031,0.076747309315
0.508280455635,0.880462233302,-0.0114087666506,-0.166031610207,0.210226975974,-0.488806571728,0.0672772836746
0.406549797929,0.8321752191,-0.050278867121,-0.183736044502,0.212683125595,-0.36705412967,0.149660898669
0.149164019101,0.8781996439,-0.0428847180308,0.0231375388437,0.237662310422,-0.246042614428,0.000763820192089
0.12023037615,0.848961565396,-0.0792841935881,0.015568118468,0.178120103241,-0.158934643092,0.0753386734249
-0.0789263767326,0.843600445853,-0.312604488317,0.353510127976,0.291415199556,-0.145193427858,0.0481985195222
-0.0100028707916,0.755840616543,-0.30582099241,0.281773556765,0.19256158651,0.0652043574945,0.0204437458896
-0.0417176908828,0.594579205833,-0.229735734645,0.294301234274,0.202500150938,0.0686717076491,0.111401126834
0.0725066478724,0.530272024077,-0.106870891451,0.265826175944,0.201857145306,-0.0692612010534,0.105670099305
-0.0803533693844,0.469632740202,0.621263945795,0.79061089594,-0.479410318276,0.121575685507,-0.443319579783
-0.158795417555,0.461259470163,0.668503834047,0.774203828402,-0.412050439498,0.0673561525147,-0.400477428073
-0.141683506363,0.39580261566,0.706050314107,0.768562571112,-0.354727802426,0.0649390676194,-0.43894325971
-0.526956883035,0.780235065279,0.445459616106,1.31263220393,0.0560010623619,-0.838252010956,-0.229119053687
-0.622542105624,0.961310809772,0.451223970441,1.32893061947,-0.126562807673,-0.957922789851,-0.0344376965396
-0.635576049012,0.891282765725,0.446222075479,1.35919437152,-0.121752639637,-0.945176960572,0.00580643650167
-0.565554227835,0.783688678629,0.437923700863,1.38285175749,-0.116893982732,-0.985084309272,0.0630683828591
-0.750612155534,0.879631642433,0.0817057572399,1.34704910418,-0.874067076443,-0.468823503407,0.785116231527
-0.819835861325,1.13759156003,0.27034419672,0.971881284575,-0.845300357799,-0.67086660871,0.956185786507
-0.809794164743,1.13368429253,0.263936212065,0.982695692339,-0.851573021509,-0.662758231713,0.943809221028
-0.701278712402,1.10702644746,0.335687011115,0.781064805802,-0.75963765438,-0.690927304695,0.9280654071
-0.641019185484,1.14602666921,0.366462040094,0.82475233295,-0.809550857553,-0.763670829408,0.876999830189
-0.664040509291,1.03001385739,0.254020891657,0.908192964324,-0.760463042189,-0.689407643487,0.921683481593
-0.597895937318,0.749349397799,0.269568645624,0.921401934577,-0.619835242358,-0.761589691907,1.03900089358
-0.523395701672,0.737070109794,0.206050300866,0.846633550096,-0.581188870155,-0.632456120794,0.947286731864
